-0.06518267842 -0.02339628246   -0.196306379 -0.03165801876
  0.2493684145   0.1932756244   0.1915495137  0.01644571226
  0.3269412494  -0.3359821922 -0.05760644912 0.007785718042
  0.6343466701   0.3484647842   0.3450741443 -0.01853363352
 -0.2783316795 -0.05553247118  -0.2068756258  0.02435650851
 -0.3961101214 -0.06713122038   0.3659422683  -0.1136447028
   0.660488355    0.357393971  -0.3784257311 -0.07095982594
  0.1988757961  -0.1468081545  -0.4453180271 0.004695663196

   0.4380429445  -0.08266346631   -0.2322700461    0.1729906222   -0.2111212166   0.09385041456    0.1855106523  -0.07901862138
  -0.3722983909    0.2579351997    0.2415048339   -0.3524493877    0.1541133322    0.1513762797   -0.2617264433  0.008477479605
  -0.2175061903   -0.0856164962  -0.02763186643   0.02110970588    0.2476601654   -0.1897649255  -0.02103570518   -0.1243941599
  -0.3059847328    0.4549172059    0.4172006259    0.3173894912    0.2101338712    0.1262015917    0.2211256129    0.4718771539
   0.2049621755   -0.1905855541    0.4543311789  -0.03636015672   -0.3520173427   -0.1046869485   -0.0962274064   -0.2279057706
  -0.4609315302    0.2179555469    0.2759285953    0.3983818038    0.4643244297   -0.2290226835     0.272652107   -0.3464987425
-0.009856688881   -0.2931366123    0.2301616693   -0.1095639922   -0.2037441362  -0.04782230136    0.2054563788    0.4423674502
   0.1277413586    0.3441367953    0.2917742274    0.3338721146    0.0868667374    0.2172423212   -0.2701242482   -0.1802330894

 -0.2406223438   -0.499172684  0.03141160848  -0.4247841837  -0.5349436599  -0.4072372633  -0.3030203149   0.3802244118
  -0.397749365    0.377015167  -0.0758977628  0.05645376032  0.06145804796   -0.297658368     0.23083256   0.1436718918
 -0.4490661095  0.01574962031  -0.4076842162   0.5268786705  -0.2650207576   0.2460583553   -0.350211452 0.002312356184
 -0.3731059479  -0.3226301251  -0.1998914942  -0.3081000901   0.1263089759  -0.1972799371  -0.3079508915     0.42476651
  0.1481671313   -0.223973554  -0.4127207066   0.1622104916   0.2762625066  0.03376250549   0.2875202571  0.06908357622
 -0.1733783954   0.1158721036   0.1337781346   -0.047878783  -0.4507788539   0.2098844574 -0.07692916429  -0.2007630713
 -0.4390142491   0.4061651961  -0.2840676371  -0.4836061672  -0.5459256978  -0.5037884309   0.0732138125  -0.2229333909
 -0.1181236588   0.3441638072  -0.2788937373   0.2387820859    0.133061957  -0.1048801812   -0.142026408  -0.2507154677

-0.6486874969 -0.5582871146  0.2057824247 -0.4374045566  0.2464816041 -0.1109968867 -0.5726281307  0.2235921103




   -0.2918342659
   0.09109367587
    0.4749806838
  -0.02740488748
    0.5811635937
  -0.03071415778
    0.5167830449
-0.0006185484954

 0.3880664374
0.08954587365
  0.303125473
 0.5596908539
 0.6180283296
 0.5710981202
-0.4169167105
 0.0329894161

-0.02846605284
  -0.540200084
 -0.3075113554
 -0.3499101962
  0.3972220368
 -0.3422137738
  0.2240722566
  0.2011106569

0.5533025292

