   0.4746600316  -0.04506418566 -0.008510927989  -0.02633472515
  -0.2328083432   -0.1514179163   -0.4013294286   -0.1373040622
   0.3996200369    -0.374273568    -0.202615407    0.1240932909
   -0.616436436   -0.1081489336   -0.1949676203   -0.0243476443
   0.1569308907      0.41069981    0.2664486126   -0.1282632934
   0.1987696668    -0.389678329   -0.4266532831    0.1224618775
   0.3158596151   -0.1489835811   -0.4087920632  0.001597143089
  -0.5447187638   -0.6097450367    0.2205886129    0.1589839026

   0.6052477718    0.1300218542   -0.2103883736   -0.3989184443 -0.008070988465    0.2790345049    0.5367491294   -0.1908650727
   0.3417602057   -0.0731041455  -0.03339882968    0.2287006862   -0.3892305711    0.2904892202   -0.1512707288   -0.4611256278
  -0.4460263263    0.3565157184   -0.2039429269  -0.09342539931   -0.4465567752   -0.3887706391    -0.190556599    0.1442058621
  -0.1288452593   -0.3656843917  -0.06305835158  -0.03411986652    0.4467180427   -0.2601314921   -0.3971932413   -0.2575206137
 -0.01698747785    0.3106032493    0.3113576378    0.1931971152   0.01313931801    0.1969960078    0.4525468096    0.2477629431
 -0.07937522301   0.08004734698    0.1485348114   -0.5129073022   -0.4135688221   -0.2722170971    0.5433589478   -0.1631699429
   0.1344273547     0.327132814   -0.2829057052    0.4731408643   -0.3401360455   -0.1835985949   0.08904902785    0.1017626778
  -0.1955923118 -0.007431217327    0.2952035119   -0.2463712547  -0.05961875043   -0.2080669411   -0.3573069777    -0.411978191

  -0.340403723   0.3346341113   0.5486739135  -0.1098020825  0.06627842432  -0.4709747474  0.07180535432  -0.4274212979
 -0.1161469672  0.05185384911  -0.4538998996  -0.3980514764   0.2008948373  -0.4681913503  -0.2324596356   0.4274203543
 -0.1833412892  -0.2120545917   0.1836098033  -0.1968033675   0.2127216399   0.3119882287  0.01409293367   0.4327526376
 -0.4539067813  -0.1428689742   0.5075820426  -0.3335129893   0.4077251167  -0.5837244825   0.2491532238   0.1189120601
  0.1610284113  -0.2950882566 -0.08404013532    0.164212042  -0.2706041332   0.2537978412   0.3652781517   0.4028346444
 -0.4118776009   0.3224115133    0.319696027  -0.3681668125   0.1294686759  -0.4045962167  -0.1282477002  -0.4379142976
 -0.2423413625  -0.2707606741  0.08952204049  -0.4960753754 -0.06120184092 -0.06436044264   0.4597388459   0.1864452325
  0.4874701684    0.193818798  -0.1767160227 -0.09610541217  -0.4635674196   0.1133733513  -0.1051152703  -0.3678631411

 -0.9232340023   0.1023450703    0.359073333  -0.2909755542  -0.0253811871 -0.01694129108   0.2976115509   0.2159647019




 0.4802667496
-0.3226556303
 0.3912665366
-0.8296881706
-0.1918869802
-0.3215545834
 0.5902162617
0.02970440676

-0.1266241379
-0.3279538986
-0.4156013558
-0.1858613413
-0.1584852392
 0.5000274901
 0.2598298474
  0.174061413

 -0.9015441944
  0.1930554372
-0.05660265503
  0.1031727442
  0.3860447215
 -0.1382482944
  0.2235931623
 -0.2024573838

0.5751361959

